net
{
	propagationenginegenerator1791944048146838126L = "edu.ucla.belief.approx.BeliefPropagationSettings@62c5294d";
	huginenginegenerator3061656038650325130L = "edu.ucla.belief.inference.JoinTreeSettings@66867263";
	recoveryenginegenerator6944530267470113528l = "edu.ucla.util.SettingsImpl@15eccd21";
	node_size = (130.0 55.0);
}

node Income
{
	states = ("High" "Medium" "Low" );
	position = (-16 -208);
	excludepolicy = "include whole CPT";
	DSLxEXTRA_DEFINITIONxRANKED = "false";
	ismapvariable = "false";
	ID = "Profession";
	DSLxPOSITIONxHEIGHT = "30";
	DSLxTYPE = "CPT";
	label = "Income";
	DSLxEXTRA_DEFINITIONxDIAGNOSIS_TYPE = "AUXILIARY";
	DSLxEXTRA_DEFINITIONxMANDATORY = "false";
	DSLxPOSITIONxWIDTH = "83";
	diagnosistype = "AUXILIARY";
}
node PaymentHistory
{
	states = ("Excellent" "Acceptable" "Unacceptable" );
	position = (159 -208);
	excludepolicy = "include whole CPT";
	DSLxEXTRA_DEFINITIONxRANKED = "false";
	ismapvariable = "false";
	ID = "PaymentHistory";
	DSLxPOSITIONxHEIGHT = "30";
	DSLxTYPE = "CPT";
	label = "Payment History";
	DSLxEXTRA_DEFINITIONxDIAGNOSIS_TYPE = "AUXILIARY";
	DSLxEXTRA_DEFINITIONxMANDATORY = "false";
	DSLxPOSITIONxWIDTH = "93";
	diagnosistype = "AUXILIARY";
}
node Age
{
	states = ("Between16and21" "Between22and64" "Over65" );
	position = (340 -208);
	excludepolicy = "include whole CPT";
	DSLxEXTRA_DEFINITIONxRANKED = "false";
	ismapvariable = "false";
	ID = "Age";
	DSLxPOSITIONxHEIGHT = "30";
	DSLxTYPE = "CPT";
	label = "Age";
	DSLxEXTRA_DEFINITIONxDIAGNOSIS_TYPE = "AUXILIARY";
	DSLxEXTRA_DEFINITIONxMANDATORY = "false";
	DSLxPOSITIONxWIDTH = "70";
	diagnosistype = "AUXILIARY";
}
node Assets
{
	states = ("High" "Medium" "Low" );
	position = (154 -305);
	excludepolicy = "include whole CPT";
	DSLxEXTRA_DEFINITIONxRANKED = "false";
	ismapvariable = "false";
	ID = "Worth";
	DSLxPOSITIONxHEIGHT = "30";
	label = "Assets";
	DSLxTYPE = "CPT";
	DSLxEXTRA_DEFINITIONxMANDATORY = "false";
	DSLxEXTRA_DEFINITIONxDIAGNOSIS_TYPE = "AUXILIARY";
	DSLxPOSITIONxWIDTH = "70";
	diagnosistype = "AUXILIARY";
}
node DebtIncomeRatio
{
	states = ("Low" "High" );
	position = (-19 -297);
	excludepolicy = "include whole CPT";
	DSLxEXTRA_DEFINITIONxRANKED = "false";
	ismapvariable = "false";
	ID = "RatioDebInc";
	DSLxPOSITIONxHEIGHT = "30";
	DSLxTYPE = "CPT";
	label = "Ratio of Debts To Income";
	DSLxEXTRA_DEFINITIONxDIAGNOSIS_TYPE = "AUXILIARY";
	DSLxEXTRA_DEFINITIONxMANDATORY = "false";
	DSLxPOSITIONxWIDTH = "81";
	diagnosistype = "AUXILIARY";
}
node Reliability
{
	states = ("Reliable" "Unreliable" );
	position = (345 -306);
	excludepolicy = "include whole CPT";
	DSLxEXTRA_DEFINITIONxRANKED = "false";
	ismapvariable = "false";
	ID = "Reliability";
	DSLxPOSITIONxHEIGHT = "30";
	DSLxTYPE = "CPT";
	label = "Reliability";
	DSLxEXTRA_DEFINITIONxDIAGNOSIS_TYPE = "AUXILIARY";
	DSLxEXTRA_DEFINITIONxMANDATORY = "false";
	DSLxPOSITIONxWIDTH = "70";
	diagnosistype = "AUXILIARY";
}
node CreditWorthiness
{
	states = ("Positive" "Negative" );
	position = (158 -390);
	excludepolicy = "include whole CPT";
	DSLxEXTRA_DEFINITIONxRANKED = "false";
	ismapvariable = "false";
	ID = "CreditWorthiness";
	DSLxPOSITIONxHEIGHT = "30";
	label = "Credit Worthiness";
	DSLxTYPE = "CPT";
	DSLxEXTRA_DEFINITIONxMANDATORY = "false";
	DSLxEXTRA_DEFINITIONxDIAGNOSIS_TYPE = "AUXILIARY";
	DSLxPOSITIONxWIDTH = "100";
	diagnosistype = "AUXILIARY";
}
node FutureIncome
{
	states = ("Promising" "Not_promising" );
	position = (-20 -386);
	excludepolicy = "include whole CPT";
	DSLxEXTRA_DEFINITIONxRANKED = "false";
	ismapvariable = "false";
	ID = "FutureIncome";
	DSLxPOSITIONxHEIGHT = "30";
	label = "Future Income";
	DSLxTYPE = "CPT";
	DSLxEXTRA_DEFINITIONxMANDATORY = "false";
	DSLxEXTRA_DEFINITIONxDIAGNOSIS_TYPE = "AUXILIARY";
	DSLxPOSITIONxWIDTH = "90";
	diagnosistype = "AUXILIARY";
}
potential ( Income | )
{
	data = (	0.3333333333333333	0.3333333333333333	0.3333333333333333	);
}
potential ( PaymentHistory | )
{
	data = (	0.3333333333333333	0.3333333333333333	0.3333333333333333	);
}
potential ( Age | )
{
	data = (	0.3333333333333333	0.3333333333333333	0.3333333333333333	);
}
potential ( Assets | )
{
	data = (	0.3333333333333333	0.3333333333333333	0.3333333333333333	);
}
potential ( DebtIncomeRatio | )
{
	data = (	0.5	0.5	);
}
potential ( Reliability | )
{
	data = (	0.5	0.5	);
}
potential ( CreditWorthiness | )
{
	data = (	0.5	0.5	);
}
potential ( FutureIncome | )
{
	data = (	0.5	0.5	);
}
